<?xml version="1.0"?>
<opencv_storage>
<cascade>
  <stageType>BOOST</stageType>
  <featureType>HAAR</featureType>
  <height>20</height>
  <width>20</width>
  <stageParams>
    <boostType>GAB</boostType>
    <minHitRate>9.9500000476837158e-01</minHitRate>
    <maxFalseAlarm>5.0000000000000000e-01</maxFalseAlarm>
    <weightTrimRate>9.4999999999999996e-01</weightTrimRate>
    <maxDepth>1</maxDepth>
    <maxWeakCount>100</maxWeakCount></stageParams>
  <featureParams>
    <maxCatCount>0</maxCatCount>
    <featSize>1</featSize>
    <mode>BASIC</mode></featureParams>
  <stageNum>9</stageNum>
  <stages>
    <!-- stage 0 -->
    <_>
      <maxWeakCount>3</maxWeakCount>
      <stageThreshold>-9.8459780216217041e-01</stageThreshold>
      <weakClassifiers>
        <_>
          <internalNodes>
            0 -1 15 1.5034512616693974e-03</internalNodes>
          <leafValues>
            -9.1292136907577515e-01 7.7967804670333862e-01</leafValues></_>
        <_>
          <internalNodes>
            0 -1 32 1.2588867684826255e-03</internalNodes>
          <leafValues>
            -6.4918255805969238e-01 7.6781892776489258e-01</leafValues></_>
        <_>
          <internalNodes>
            0 -1 3 1.1653155088424683e-02</internalNodes>
          <leafValues>
            -8.2598060369491577e-01 5.7750612497329712e-01</leafValues></_></weakClassifiers></_>
    <!-- stage 1 -->
    <_>
      <maxWeakCount>6</maxWeakCount>
      <stageThreshold>-3.5941553115844727e-01</stageThreshold>
      <weakClassifiers>
        <_>
          <internalNodes>
            0 -1 24 2.8012299444526434e-03</internalNodes>
          <leafValues>
            -4.9947863817214966e-01 7.9207354784011841e-01</leafValues></_>
        <_>
          <internalNodes>
            0 -1 4 2.7730317786335945e-02</internalNodes>
          <leafValues>
            -7.9097378253936768e-01 4.8810917139053345e-01</leafValues></_>
        <_>
          <internalNodes>
            0 -1 28 -2.0471808966249228e-04</internalNodes>
          <leafValues>
            -9.6210831403732300e-01 3.0735278129577637e-01</leafValues></_>
        <_>
          <internalNodes>
            0 -1 28 8.9772581122815609e-04</internalNodes>
          <leafValues>
            2.8729712963104248e-01 -9.8640251159667969e-01</leafValues></_>
        <_>
          <internalNodes>
            0 -1 12 1.5233811736106873e-01</internalNodes>
          <leafValues>
            -3.8852697610855103e-01 9.2924553155899048e-01</leafValues></_>
        <_>
          <internalNodes>
            0 -1 2 -1.1742714792490005e-01</internalNodes>
          <leafValues>
            7.2491395473480225e-01 -3.9402928948402405e-01</leafValues></_></weakClassifiers></_>
    <!-- stage 2 -->
    <_>
      <maxWeakCount>5</maxWeakCount>
      <stageThreshold>-9.6264100074768066e-01</stageThreshold>
      <weakClassifiers>
        <_>
          <internalNodes>
            0 -1 16 4.4557600631378591e-05</internalNodes>
          <leafValues>
            -9.6061271429061890e-01 5.9696835279464722e-01</leafValues></_>
        <_>
          <internalNodes>
            0 -1 22 3.2015512697398663e-03</internalNodes>
          <leafValues>
            -6.7448943853378296e-01 6.4474970102310181e-01</leafValues></_>
        <_>
          <internalNodes>
            0 -1 26 7.6068914495408535e-04</internalNodes>
          <leafValues>
            3.8921564817428589e-01 -8.5826629400253296e-01</leafValues></_>
        <_>
          <internalNodes>
            0 -1 20 -7.0399343967437744e-03</internalNodes>
          <leafValues>
            6.7121595144271851e-01 -4.5474863052368164e-01</leafValues></_>
        <_>
          <internalNodes>
            0 -1 8 1.1313930153846741e-02</internalNodes>
          <leafValues>
            -6.3497781753540039e-01 4.2789503931999207e-01</leafValues></_></weakClassifiers></_>
    <!-- stage 3 -->
    <_>
      <maxWeakCount>3</maxWeakCount>
      <stageThreshold>2.6235248893499374e-02</stageThreshold>
      <weakClassifiers>
        <_>
          <internalNodes>
            0 -1 19 1.3258336111903191e-03</internalNodes>
          <leafValues>
            5.8240783214569092e-01 -9.1536748409271240e-01</leafValues></_>
        <_>
          <internalNodes>
            0 -1 23 5.7611223310232162e-03</internalNodes>
          <leafValues>
            -5.6943565607070923e-01 5.3523612022399902e-01</leafValues></_>
        <_>
          <internalNodes>
            0 -1 19 -5.7720451150089502e-04</internalNodes>
          <leafValues>
            -9.7569906711578369e-01 4.0636658668518066e-01</leafValues></_></weakClassifiers></_>
    <!-- stage 4 -->
    <_>
      <maxWeakCount>6</maxWeakCount>
      <stageThreshold>-6.9630122184753418e-01</stageThreshold>
      <weakClassifiers>
        <_>
          <internalNodes>
            0 -1 14 7.5774342985823750e-04</internalNodes>
          <leafValues>
            -7.1747213602066040e-01 5.9481960535049438e-01</leafValues></_>
        <_>
          <internalNodes>
            0 -1 38 5.1261237822473049e-03</internalNodes>
          <leafValues>
            -3.8686954975128174e-01 6.5153449773788452e-01</leafValues></_>
        <_>
          <internalNodes>
            0 -1 29 5.6616048823343590e-05</internalNodes>
          <leafValues>
            3.2592600584030151e-01 -8.3470821380615234e-01</leafValues></_>
        <_>
          <internalNodes>
            0 -1 27 -2.1757129579782486e-03</internalNodes>
          <leafValues>
            -9.8642086982727051e-01 2.4798908829689026e-01</leafValues></_>
        <_>
          <internalNodes>
            0 -1 1 4.0031187236309052e-03</internalNodes>
          <leafValues>
            -4.8348239064216614e-01 5.3854948282241821e-01</leafValues></_>
        <_>
          <internalNodes>
            0 -1 11 9.9232271313667297e-03</internalNodes>
          <leafValues>
            -7.0442414283752441e-01 3.5839363932609558e-01</leafValues></_></weakClassifiers></_>
    <!-- stage 5 -->
    <_>
      <maxWeakCount>6</maxWeakCount>
      <stageThreshold>-8.8817900419235229e-01</stageThreshold>
      <weakClassifiers>
        <_>
          <internalNodes>
            0 -1 37 1.3240689877420664e-03</internalNodes>
          <leafValues>
            5.3416413068771362e-01 -9.1957104206085205e-01</leafValues></_>
        <_>
          <internalNodes>
            0 -1 41 -3.3876332454383373e-03</internalNodes>
          <leafValues>
            6.4257889986038208e-01 -4.3133246898651123e-01</leafValues></_>
        <_>
          <internalNodes>
            0 -1 37 -3.1022541224956512e-04</internalNodes>
          <leafValues>
            -8.5727733373641968e-01 4.4799709320068359e-01</leafValues></_>
        <_>
          <internalNodes>
            0 -1 39 -1.1933274799957871e-03</internalNodes>
          <leafValues>
            4.2469853162765503e-01 -5.7009112834930420e-01</leafValues></_>
        <_>
          <internalNodes>
            0 -1 10 -1.7074912320822477e-03</internalNodes>
          <leafValues>
            4.2130899429321289e-01 -5.4463458061218262e-01</leafValues></_>
        <_>
          <internalNodes>
            0 -1 0 -6.8340832367539406e-03</internalNodes>
          <leafValues>
            6.9457310438156128e-01 -3.2428207993507385e-01</leafValues></_></weakClassifiers></_>
    <!-- stage 6 -->
    <_>
      <maxWeakCount>6</maxWeakCount>
      <stageThreshold>-5.1392579078674316e-01</stageThreshold>
      <weakClassifiers>
        <_>
          <internalNodes>
            0 -1 34 1.2533436529338360e-03</internalNodes>
          <leafValues>
            -7.3695200681686401e-01 5.6416028738021851e-01</leafValues></_>
        <_>
          <internalNodes>
            0 -1 36 2.4773704353719950e-04</internalNodes>
          <leafValues>
            3.2187953591346741e-01 -7.8325170278549194e-01</leafValues></_>
        <_>
          <internalNodes>
            0 -1 31 -2.5279640685766935e-03</internalNodes>
          <leafValues>
            4.9370881915092468e-01 -4.6591427922248840e-01</leafValues></_>
        <_>
          <internalNodes>
            0 -1 18 1.2686729314737022e-04</internalNodes>
          <leafValues>
            2.2815084457397461e-01 -8.6690425872802734e-01</leafValues></_>
        <_>
          <internalNodes>
            0 -1 25 3.8199094124138355e-03</internalNodes>
          <leafValues>
            -4.3206354975700378e-01 4.3808534741401672e-01</leafValues></_>
        <_>
          <internalNodes>
            0 -1 5 1.6142979264259338e-02</internalNodes>
          <leafValues>
            -3.3286455273628235e-01 7.1648180484771729e-01</leafValues></_></weakClassifiers></_>
    <!-- stage 7 -->
    <_>
      <maxWeakCount>4</maxWeakCount>
      <stageThreshold>-7.2509288787841797e-01</stageThreshold>
      <weakClassifiers>
        <_>
          <internalNodes>
            0 -1 33 1.9479744136333466e-02</internalNodes>
          <leafValues>
            6.4596849679946899e-01 -9.1143912076950073e-01</leafValues></_>
        <_>
          <internalNodes>
            0 -1 13 1.8531012535095215e-01</internalNodes>
          <leafValues>
            -3.3897915482521057e-01 8.0919718742370605e-01</leafValues></_>
        <_>
          <internalNodes>
            0 -1 17 -5.2374228835105896e-04</internalNodes>
          <leafValues>
            -9.5354747772216797e-01 2.8823924064636230e-01</leafValues></_>
        <_>
          <internalNodes>
            0 -1 40 -5.4536496463697404e-05</internalNodes>
          <leafValues>
            -7.7527248859405518e-01 2.3708613216876984e-01</leafValues></_></weakClassifiers></_>
    <!-- stage 8 -->
    <_>
      <maxWeakCount>8</maxWeakCount>
      <stageThreshold>-8.4762293100357056e-01</stageThreshold>
      <weakClassifiers>
        <_>
          <internalNodes>
            0 -1 30 -6.5539978095330298e-05</internalNodes>
          <leafValues>
            -6.5048545598983765e-01 5.6521737575531006e-01</leafValues></_>
        <_>
          <internalNodes>
            0 -1 21 4.2969696223735809e-02</internalNodes>
          <leafValues>
            -3.0436763167381287e-01 6.8045294284820557e-01</leafValues></_>
        <_>
          <internalNodes>
            0 -1 9 1.0515518486499786e-02</internalNodes>
          <leafValues>
            -3.8170623779296875e-01 5.2949577569961548e-01</leafValues></_>
        <_>
          <internalNodes>
            0 -1 1 5.1405718550086021e-03</internalNodes>
          <leafValues>
            -3.6272171139717102e-01 5.6988906860351562e-01</leafValues></_>
        <_>
          <internalNodes>
            0 -1 26 -4.4157635420560837e-04</internalNodes>
          <leafValues>
            -9.8134315013885498e-01 2.3722411692142487e-01</leafValues></_>
        <_>
          <internalNodes>
            0 -1 7 -1.4632457867264748e-02</internalNodes>
          <leafValues>
            7.0690864324569702e-01 -3.2826265692710876e-01</leafValues></_>
        <_>
          <internalNodes>
            0 -1 35 -3.4488743403926492e-04</internalNodes>
          <leafValues>
            -9.1067928075790405e-01 1.7981933057308197e-01</leafValues></_>
        <_>
          <internalNodes>
            0 -1 6 7.7208086848258972e-02</internalNodes>
          <leafValues>
            -2.7229404449462891e-01 7.6352262496948242e-01</leafValues></_></weakClassifiers></_></stages>
  <features>
    <_>
      <rects>
        <_>
          0 8 2 6 -1.</_>
        <_>
          0 8 1 3 2.</_>
        <_>
          1 11 1 3 2.</_></rects>
      <tilted>0</tilted></_>
    <_>
      <rects>
        <_>
          1 7 2 6 -1.</_>
        <_>
          1 7 1 3 2.</_>
        <_>
          2 10 1 3 2.</_></rects>
      <tilted>0</tilted></_>
    <_>
      <rects>
        <_>
          2 0 11 12 -1.</_>
        <_>
          2 6 11 6 2.</_></rects>
      <tilted>0</tilted></_>
    <_>
      <rects>
        <_>
          2 8 8 7 -1.</_>
        <_>
          6 8 4 7 2.</_></rects>
      <tilted>0</tilted></_>
    <_>
      <rects>
        <_>
          2 8 15 7 -1.</_>
        <_>
          7 8 5 7 3.</_></rects>
      <tilted>0</tilted></_>
    <_>
      <rects>
        <_>
          2 13 5 4 -1.</_>
        <_>
          2 15 5 2 2.</_></rects>
      <tilted>0</tilted></_>
    <_>
      <rects>
        <_>
          2 14 18 6 -1.</_>
        <_>
          2 17 18 3 2.</_></rects>
      <tilted>0</tilted></_>
    <_>
      <rects>
        <_>
          2 15 10 2 -1.</_>
        <_>
          2 15 5 1 2.</_>
        <_>
          7 16 5 1 2.</_></rects>
      <tilted>0</tilted></_>
    <_>
      <rects>
        <_>
          3 7 4 10 -1.</_>
        <_>
          5 7 2 10 2.</_></rects>
      <tilted>0</tilted></_>
    <_>
      <rects>
        <_>
          3 9 6 4 -1.</_>
        <_>
          5 9 2 4 3.</_></rects>
      <tilted>0</tilted></_>
    <_>
      <rects>
        <_>
          3 10 3 3 -1.</_>
        <_>
          4 10 1 3 3.</_></rects>
      <tilted>0</tilted></_>
    <_>
      <rects>
        <_>
          3 11 6 4 -1.</_>
        <_>
          6 11 3 4 2.</_></rects>
      <tilted>0</tilted></_>
    <_>
      <rects>
        <_>
          7 7 6 12 -1.</_>
        <_>
          7 11 6 4 3.</_></rects>
      <tilted>0</tilted></_>
    <_>
      <rects>
        <_>
          7 7 7 12 -1.</_>
        <_>
          7 11 7 4 3.</_></rects>
      <tilted>0</tilted></_>
    <_>
      <rects>
        <_>
          7 10 6 2 -1.</_>
        <_>
          9 10 2 2 3.</_></rects>
      <tilted>0</tilted></_>
    <_>
      <rects>
        <_>
          7 10 7 4 -1.</_>
        <_>
          7 12 7 2 2.</_></rects>
      <tilted>0</tilted></_>
    <_>
      <rects>
        <_>
          8 10 5 4 -1.</_>
        <_>
          8 12 5 2 2.</_></rects>
      <tilted>0</tilted></_>
    <_>
      <rects>
        <_>
          8 11 3 3 -1.</_>
        <_>
          9 11 1 3 3.</_></rects>
      <tilted>0</tilted></_>
    <_>
      <rects>
        <_>
          8 13 4 1 -1.</_>
        <_>
          10 13 2 1 2.</_></rects>
      <tilted>0</tilted></_>
    <_>
      <rects>
        <_>
          8 13 6 1 -1.</_>
        <_>
          10 13 2 1 3.</_></rects>
      <tilted>0</tilted></_>
    <_>
      <rects>
        <_>
          8 15 4 2 -1.</_>
        <_>
          8 16 4 1 2.</_></rects>
      <tilted>0</tilted></_>
    <_>
      <rects>
        <_>
          9 3 5 6 -1.</_>
        <_>
          9 5 5 2 3.</_></rects>
      <tilted>0</tilted></_>
    <_>
      <rects>
        <_>
          9 4 2 3 -1.</_>
        <_>
          9 5 2 1 3.</_></rects>
      <tilted>0</tilted></_>
    <_>
      <rects>
        <_>
          9 4 3 3 -1.</_>
        <_>
          9 5 3 1 3.</_></rects>
      <tilted>0</tilted></_>
    <_>
      <rects>
        <_>
          9 9 3 2 -1.</_>
        <_>
          9 10 3 1 2.</_></rects>
      <tilted>0</tilted></_>
    <_>
      <rects>
        <_>
          9 9 3 3 -1.</_>
        <_>
          9 10 3 1 3.</_></rects>
      <tilted>0</tilted></_>
    <_>
      <rects>
        <_>
          9 11 3 2 -1.</_>
        <_>
          9 12 3 1 2.</_></rects>
      <tilted>0</tilted></_>
    <_>
      <rects>
        <_>
          9 12 4 2 -1.</_>
        <_>
          11 12 2 2 2.</_></rects>
      <tilted>0</tilted></_>
    <_>
      <rects>
        <_>
          9 12 3 2 -1.</_>
        <_>
          9 13 3 1 2.</_></rects>
      <tilted>0</tilted></_>
    <_>
      <rects>
        <_>
          9 13 4 2 -1.</_>
        <_>
          11 13 2 2 2.</_></rects>
      <tilted>0</tilted></_>
    <_>
      <rects>
        <_>
          9 13 9 1 -1.</_>
        <_>
          12 13 3 1 3.</_></rects>
      <tilted>0</tilted></_>
    <_>
      <rects>
        <_>
          9 15 2 3 -1.</_>
        <_>
          9 16 2 1 3.</_></rects>
      <tilted>0</tilted></_>
    <_>
      <rects>
        <_>
          10 4 1 3 -1.</_>
        <_>
          10 5 1 1 3.</_></rects>
      <tilted>0</tilted></_>
    <_>
      <rects>
        <_>
          10 5 1 14 -1.</_>
        <_>
          10 12 1 7 2.</_></rects>
      <tilted>0</tilted></_>
    <_>
      <rects>
        <_>
          10 9 3 6 -1.</_>
        <_>
          10 11 3 2 3.</_></rects>
      <tilted>0</tilted></_>
    <_>
      <rects>
        <_>
          10 11 3 1 -1.</_>
        <_>
          11 11 1 1 3.</_></rects>
      <tilted>0</tilted></_>
    <_>
      <rects>
        <_>
          10 11 2 3 -1.</_>
        <_>
          10 12 2 1 3.</_></rects>
      <tilted>0</tilted></_>
    <_>
      <rects>
        <_>
          10 11 2 4 -1.</_>
        <_>
          10 13 2 2 2.</_></rects>
      <tilted>0</tilted></_>
    <_>
      <rects>
        <_>
          11 5 3 3 -1.</_>
        <_>
          11 6 3 1 3.</_></rects>
      <tilted>0</tilted></_>
    <_>
      <rects>
        <_>
          11 6 1 2 -1.</_>
        <_>
          11 7 1 1 2.</_></rects>
      <tilted>0</tilted></_>
    <_>
      <rects>
        <_>
          12 12 1 2 -1.</_>
        <_>
          12 13 1 1 2.</_></rects>
      <tilted>0</tilted></_>
    <_>
      <rects>
        <_>
          18 9 2 4 -1.</_>
        <_>
          19 9 1 4 2.</_></rects>
      <tilted>0</tilted></_></features></cascade>
</opencv_storage>
