<?xml version="1.0"?>
<opencv_storage>
<stage1>
  <maxWeakCount>6</maxWeakCount>
  <stageThreshold>-3.5941553115844727e-01</stageThreshold>
  <weakClassifiers>
    <_>
      <internalNodes>
        0 -1 57460 2.8012299444526434e-03</internalNodes>
      <leafValues>
        -4.9947863817214966e-01 7.9207354784011841e-01</leafValues></_>
    <_>
      <internalNodes>
        0 -1 19402 2.7730317786335945e-02</internalNodes>
      <leafValues>
        -7.9097378253936768e-01 4.8810917139053345e-01</leafValues></_>
    <_>
      <internalNodes>
        0 -1 58005 -2.0471808966249228e-04</internalNodes>
      <leafValues>
        -9.6210831403732300e-01 3.0735278129577637e-01</leafValues></_>
    <_>
      <internalNodes>
        0 -1 58005 8.9772581122815609e-04</internalNodes>
      <leafValues>
        2.8729712963104248e-01 -9.8640251159667969e-01</leafValues></_>
    <_>
      <internalNodes>
        0 -1 48131 1.5233811736106873e-01</internalNodes>
      <leafValues>
        -3.8852697610855103e-01 9.2924553155899048e-01</leafValues></_>
    <_>
      <internalNodes>
        0 -1 15327 -1.1742714792490005e-01</internalNodes>
      <leafValues>
        7.2491395473480225e-01 -3.9402928948402405e-01</leafValues></_></weakClassifiers></stage1>
</opencv_storage>
