<?xml version="1.0"?>
<opencv_storage>
<stage3>
  <maxWeakCount>26</maxWeakCount>
  <stageThreshold>-8.9174515008926392e-01</stageThreshold>
  <weakClassifiers>
    <_>
      <internalNodes>
        0 -1 35652 -6.8875834345817566e-02</internalNodes>
      <leafValues>
        5.2795696258544922e-01 -9.7619049251079559e-02</leafValues></_>
    <_>
      <internalNodes>
        0 -1 58376 2.2092058788985014e-03</internalNodes>
      <leafValues>
        -2.5041195750236511e-01 2.8901380300521851e-01</leafValues></_>
    <_>
      <internalNodes>
        0 -1 51633 -1.8467896734364331e-04</internalNodes>
      <leafValues>
        -3.9276647567749023e-01 1.9734549522399902e-01</leafValues></_>
    <_>
      <internalNodes>
        0 -1 42666 3.2456360757350922e-02</internalNodes>
      <leafValues>
        -2.1028347313404083e-01 2.9253551363945007e-01</leafValues></_>
    <_>
      <internalNodes>
        0 -1 1728 -2.4008589982986450e-01</internalNodes>
      <leafValues>
        6.7685317993164062e-01 -1.2655410170555115e-01</leafValues></_>
    <_>
      <internalNodes>
        0 -1 40273 1.2133531272411346e-02</internalNodes>
      <leafValues>
        -1.7261865735054016e-01 4.9816814064979553e-01</leafValues></_>
    <_>
      <internalNodes>
        0 -1 27894 -3.9816286414861679e-02</internalNodes>
      <leafValues>
        5.5398321151733398e-01 -9.7640812397003174e-02</leafValues></_>
    <_>
      <internalNodes>
        0 -1 68174 2.4472571909427643e-02</internalNodes>
      <leafValues>
        -2.0191852748394012e-01 3.2920682430267334e-01</leafValues></_>
    <_>
      <internalNodes>
        0 -1 65478 -1.4561112970113754e-02</internalNodes>
      <leafValues>
        5.5495142936706543e-01 -1.2131462246179581e-01</leafValues></_>
    <_>
      <internalNodes>
        0 -1 2312 1.5353839099407196e-01</internalNodes>
      <leafValues>
        -1.0162121057510376e-01 5.7934111356735229e-01</leafValues></_>
    <_>
      <internalNodes>
        0 -1 6554 -1.8885082006454468e-01</internalNodes>
      <leafValues>
        8.5090309381484985e-01 -4.1479431092739105e-02</leafValues></_>
    <_>
      <internalNodes>
        0 -1 58112 5.6758960708975792e-03</internalNodes>
      <leafValues>
        7.1118332445621490e-02 -7.5789469480514526e-01</leafValues></_>
    <_>
      <internalNodes>
        0 -1 44577 1.4065500581637025e-03</internalNodes>
      <leafValues>
        -2.8549733757972717e-01 1.8661123514175415e-01</leafValues></_>
    <_>
      <internalNodes>
        0 -1 47596 -1.6414881974924356e-04</internalNodes>
      <leafValues>
        -2.7567186951637268e-01 2.1429456770420074e-01</leafValues></_>
    <_>
      <internalNodes>
        0 -1 37160 2.7210390544496477e-04</internalNodes>
      <leafValues>
        1.6333217918872833e-01 -3.9482238888740540e-01</leafValues></_>
    <_>
      <internalNodes>
        0 -1 40988 4.3119609355926514e-02</internalNodes>
      <leafValues>
        -1.5317285060882568e-01 5.2183544635772705e-01</leafValues></_>
    <_>
      <internalNodes>
        0 -1 42544 -1.2382202839944512e-04</internalNodes>
      <leafValues>
        -2.4105879664421082e-01 2.3883220553398132e-01</leafValues></_>
    <_>
      <internalNodes>
        0 -1 42544 8.0282028648070991e-05</internalNodes>
      <leafValues>
        1.8287219107151031e-01 -4.0729764103889465e-01</leafValues></_>
    <_>
      <internalNodes>
        0 -1 33213 -4.0021860040724277e-03</internalNodes>
      <leafValues>
        3.7011530995368958e-01 -1.5471661090850830e-01</leafValues></_>
    <_>
      <internalNodes>
        0 -1 38706 4.7849556431174278e-03</internalNodes>
      <leafValues>
        -1.4996296167373657e-01 3.6072659492492676e-01</leafValues></_>
    <_>
      <internalNodes>
        0 -1 58516 3.1289656180888414e-03</internalNodes>
      <leafValues>
        -1.5392205119132996e-01 3.4697952866554260e-01</leafValues></_>
    <_>
      <internalNodes>
        0 -1 69268 3.0714480206370354e-02</internalNodes>
      <leafValues>
        -1.1036208271980286e-01 4.0100547671318054e-01</leafValues></_>
    <_>
      <internalNodes>
        0 -1 56267 1.1659494787454605e-01</internalNodes>
      <leafValues>
        9.2700384557247162e-02 -6.2010389566421509e-01</leafValues></_>
    <_>
      <internalNodes>
        0 -1 18380 -3.6011230200529099e-02</internalNodes>
      <leafValues>
        5.3015798330307007e-01 -1.0093285143375397e-01</leafValues></_>
    <_>
      <internalNodes>
        0 -1 24168 3.8779728114604950e-02</internalNodes>
      <leafValues>
        -5.6787509471178055e-02 7.8034919500350952e-01</leafValues></_>
    <_>
      <internalNodes>
        0 -1 36658 9.3202419520821422e-05</internalNodes>
      <leafValues>
        1.9651708006858826e-01 -2.9395037889480591e-01</leafValues></_></weakClassifiers></stage3>
</opencv_storage>
