<?xml version="1.0"?>
<opencv_storage>
<stage5>
  <maxWeakCount>32</maxWeakCount>
  <stageThreshold>-8.9228606224060059e-01</stageThreshold>
  <weakClassifiers>
    <_>
      <internalNodes>
        0 -1 68462 8.7042739614844322e-03</internalNodes>
      <leafValues>
        1.2609238922595978e-01 6.3570129871368408e-01</leafValues></_>
    <_>
      <internalNodes>
        0 -1 33204 -4.8652458935976028e-03</internalNodes>
      <leafValues>
        5.1080089807510376e-01 -1.0527018457651138e-01</leafValues></_>
    <_>
      <internalNodes>
        0 -1 65581 -2.0069848746061325e-02</internalNodes>
      <leafValues>
        5.3901386260986328e-01 -1.9072079658508301e-01</leafValues></_>
    <_>
      <internalNodes>
        0 -1 53211 -7.4453908018767834e-04</internalNodes>
      <leafValues>
        2.7099800109863281e-01 -2.1118651330471039e-01</leafValues></_>
    <_>
      <internalNodes>
        0 -1 27038 -3.1079463660717010e-03</internalNodes>
      <leafValues>
        3.6390072107315063e-01 -1.6450504958629608e-01</leafValues></_>
    <_>
      <internalNodes>
        0 -1 39683 2.1334951743483543e-03</internalNodes>
      <leafValues>
        -1.9519942998886108e-01 2.8016862273216248e-01</leafValues></_>
    <_>
      <internalNodes>
        0 -1 2326 7.1123808622360229e-02</internalNodes>
      <leafValues>
        -1.8683290481567383e-01 3.2679125666618347e-01</leafValues></_>
    <_>
      <internalNodes>
        0 -1 14005 -1.6408026218414307e-01</internalNodes>
      <leafValues>
        5.8244860172271729e-01 -1.0434239357709885e-01</leafValues></_>
    <_>
      <internalNodes>
        0 -1 65123 7.5479876250028610e-04</internalNodes>
      <leafValues>
        -2.9990142583847046e-01 1.8491278588771820e-01</leafValues></_>
    <_>
      <internalNodes>
        0 -1 42164 -1.3199789100326598e-04</internalNodes>
      <leafValues>
        -3.6275050044059753e-01 1.3981045782566071e-01</leafValues></_>
    <_>
      <internalNodes>
        0 -1 42164 1.2115891149733216e-04</internalNodes>
      <leafValues>
        2.0492802560329437e-01 -2.6003849506378174e-01</leafValues></_>
    <_>
      <internalNodes>
        0 -1 49672 2.5026625953614712e-03</internalNodes>
      <leafValues>
        -1.4593011140823364e-01 3.5414966940879822e-01</leafValues></_>
    <_>
      <internalNodes>
        0 -1 70140 7.9425296280533075e-04</internalNodes>
      <leafValues>
        -1.6455365717411041e-01 3.0253708362579346e-01</leafValues></_>
    <_>
      <internalNodes>
        0 -1 69979 -1.7775916494429111e-03</internalNodes>
      <leafValues>
        3.5457625985145569e-01 -1.5758034586906433e-01</leafValues></_>
    <_>
      <internalNodes>
        0 -1 47955 1.9165925681591034e-02</internalNodes>
      <leafValues>
        6.9337375462055206e-02 -7.8892666101455688e-01</leafValues></_>
    <_>
      <internalNodes>
        0 -1 72053 7.1775885298848152e-03</internalNodes>
      <leafValues>
        -1.5732690691947937e-01 3.3500775694847107e-01</leafValues></_>
    <_>
      <internalNodes>
        0 -1 71724 -2.7901582419872284e-02</internalNodes>
      <leafValues>
        5.5540204048156738e-01 -8.5067890584468842e-02</leafValues></_>
    <_>
      <internalNodes>
        0 -1 32758 -9.8163664340972900e-02</internalNodes>
      <leafValues>
        -5.1789641380310059e-01 1.0668966174125671e-01</leafValues></_>
    <_>
      <internalNodes>
        0 -1 47359 1.6752123832702637e-02</internalNodes>
      <leafValues>
        -1.3278244435787201e-01 3.7680268287658691e-01</leafValues></_>
    <_>
      <internalNodes>
        0 -1 3554 -1.6126537322998047e-01</internalNodes>
      <leafValues>
        4.9399709701538086e-01 -8.0514468252658844e-02</leafValues></_>
    <_>
      <internalNodes>
        0 -1 62113 2.0535157527774572e-03</internalNodes>
      <leafValues>
        -1.8450284004211426e-01 2.5648555159568787e-01</leafValues></_>
    <_>
      <internalNodes>
        0 -1 68167 3.0028654262423515e-02</internalNodes>
      <leafValues>
        7.3998495936393738e-02 -7.0156329870223999e-01</leafValues></_>
    <_>
      <internalNodes>
        0 -1 28570 1.5631726011633873e-02</internalNodes>
      <leafValues>
        -1.9102953374385834e-01 2.3860020935535431e-01</leafValues></_>
    <_>
      <internalNodes>
        0 -1 44526 -1.4063760638237000e-02</internalNodes>
      <leafValues>
        3.6823749542236328e-01 -1.3123434782028198e-01</leafValues></_>
    <_>
      <internalNodes>
        0 -1 62102 1.0423616506159306e-02</internalNodes>
      <leafValues>
        -1.8066012859344482e-01 2.4022413790225983e-01</leafValues></_>
    <_>
      <internalNodes>
        0 -1 49297 5.3854215890169144e-02</internalNodes>
      <leafValues>
        9.1096475720405579e-02 -5.9518277645111084e-01</leafValues></_>
    <_>
      <internalNodes>
        0 -1 44350 5.1861349493265152e-03</internalNodes>
      <leafValues>
        -1.9649013876914978e-01 2.6024013757705688e-01</leafValues></_>
    <_>
      <internalNodes>
        0 -1 69981 -1.5364325372502208e-03</internalNodes>
      <leafValues>
        3.5347118973731995e-01 -1.2791290879249573e-01</leafValues></_>
    <_>
      <internalNodes>
        0 -1 51994 -2.1231597929727286e-04</internalNodes>
      <leafValues>
        -2.4377714097499847e-01 1.7030188441276550e-01</leafValues></_>
    <_>
      <internalNodes>
        0 -1 66647 3.1593196094036102e-02</internalNodes>
      <leafValues>
        -1.0305108875036240e-01 4.0462863445281982e-01</leafValues></_>
    <_>
      <internalNodes>
        0 -1 41330 -2.0167365437373519e-04</internalNodes>
      <leafValues>
        -2.9975908994674683e-01 1.4770521223545074e-01</leafValues></_>
    <_>
      <internalNodes>
        0 -1 48578 -9.6476878970861435e-03</internalNodes>
      <leafValues>
        2.8879159688949585e-01 -1.4997321367263794e-01</leafValues></_></weakClassifiers></stage5>
</opencv_storage>
