<?xml version="1.0"?>
<opencv_storage>
<stage9>
  <maxWeakCount>19</maxWeakCount>
  <stageThreshold>-8.1505972146987915e-01</stageThreshold>
  <weakClassifiers>
    <_>
      <internalNodes>
        0 -1 68339 -1.1739955516532063e-04</internalNodes>
      <leafValues>
        5.3694581985473633e-01 -2.8358209133148193e-01</leafValues></_>
    <_>
      <internalNodes>
        0 -1 73060 -3.0619022436439991e-03</internalNodes>
      <leafValues>
        -7.5080430507659912e-01 1.7687553167343140e-01</leafValues></_>
    <_>
      <internalNodes>
        0 -1 18262 -3.7850737571716309e-01</internalNodes>
      <leafValues>
        7.3579716682434082e-01 -1.2114460766315460e-01</leafValues></_>
    <_>
      <internalNodes>
        0 -1 38706 -4.9622142687439919e-03</internalNodes>
      <leafValues>
        3.1973472237586975e-01 -4.1595584154129028e-01</leafValues></_>
    <_>
      <internalNodes>
        0 -1 39088 3.2755914144217968e-03</internalNodes>
      <leafValues>
        -3.5450652241706848e-01 2.3792281746864319e-01</leafValues></_>
    <_>
      <internalNodes>
        0 -1 54045 2.0904566626995802e-03</internalNodes>
      <leafValues>
        -1.7715574800968170e-01 4.9818617105484009e-01</leafValues></_>
    <_>
      <internalNodes>
        0 -1 52971 -2.6099614333361387e-03</internalNodes>
      <leafValues>
        3.5387024283409119e-01 -1.9191682338714600e-01</leafValues></_>
    <_>
      <internalNodes>
        0 -1 52971 3.3942563459277153e-03</internalNodes>
      <leafValues>
        -1.0704941302537918e-01 6.6454613208770752e-01</leafValues></_>
    <_>
      <internalNodes>
        0 -1 31980 -3.5834298469126225e-03</internalNodes>
      <leafValues>
        -5.6285727024078369e-01 1.3511608541011810e-01</leafValues></_>
    <_>
      <internalNodes>
        0 -1 13876 6.9781877100467682e-02</internalNodes>
      <leafValues>
        -1.5609295666217804e-01 5.0758892297744751e-01</leafValues></_>
    <_>
      <internalNodes>
        0 -1 54393 -1.5443382784724236e-02</internalNodes>
      <leafValues>
        5.1970225572586060e-01 -1.5374085307121277e-01</leafValues></_>
    <_>
      <internalNodes>
        0 -1 73048 -6.0613383539021015e-05</internalNodes>
      <leafValues>
        1.7030002176761627e-01 -4.6225225925445557e-01</leafValues></_>
    <_>
      <internalNodes>
        0 -1 65433 -3.7541415076702833e-04</internalNodes>
      <leafValues>
        -7.1266341209411621e-01 8.9528933167457581e-02</leafValues></_>
    <_>
      <internalNodes>
        0 -1 25605 -5.7972550392150879e-02</internalNodes>
      <leafValues>
        6.0818707942962646e-01 -1.2387986481189728e-01</leafValues></_>
    <_>
      <internalNodes>
        0 -1 5319 8.3416383713483810e-03</internalNodes>
      <leafValues>
        -1.2529601156711578e-01 6.0718828439712524e-01</leafValues></_>
    <_>
      <internalNodes>
        0 -1 31966 -1.5947293723002076e-03</internalNodes>
      <leafValues>
        2.7961423993110657e-01 -2.4722534418106079e-01</leafValues></_>
    <_>
      <internalNodes>
        0 -1 51815 -9.2002578079700470e-02</internalNodes>
      <leafValues>
        -9.4663721323013306e-01 8.1438347697257996e-02</leafValues></_>
    <_>
      <internalNodes>
        0 -1 47296 3.0176998116075993e-03</internalNodes>
      <leafValues>
        -1.9567437469959259e-01 4.0030664205551147e-01</leafValues></_>
    <_>
      <internalNodes>
        0 -1 24771 6.6981941461563110e-02</internalNodes>
      <leafValues>
        1.4070345461368561e-01 -6.5828245878219604e-01</leafValues></_></weakClassifiers></stage9>
</opencv_storage>
